{"learner":{"attributes":{"scikit_learn":"{\"_estimator_type\": \"classifier\"}"},"feature_names":["column_0","column_1","column_2","column_3","column_4","column_5","column_6","column_7","column_8","column_9","column_10","column_11","column_12","column_13","column_14","column_15","column_16","column_17","column_18","column_19","column_20","column_21","column_22","column_23","column_24","column_25"],"feature_types":["float","float","float","float","float","float","float","float","float","float","float","float","float","float","float","float","float","float","float","float","float","float","float","float","float","float"],"gradient_booster":{"model":{"gbtree_model_param":{"num_parallel_tree":"1","num_trees":"50"},"iteration_indptr":[0,1,2,3,4,5,6,7,8,9,10,11,12,13,14,15,16,17,18,19,20,21,22,23,24,25,26,27,28,29,30,31,32,33,34,35,36,37,38,39,40,41,42,43,44,45,46,47,48,49,50],"tree_info":[0,0,0,0,0,0,0,0,0,0,0,0,0,0,0,0,0,0,0,0,0,0,0,0,0,0,0,0,0,0,0,0,0,0,0,0,0,0,0,0,0,0,0,0,0,0,0,0,0,0],"trees":[{"base_weights":[-2.6606081E-2,7.556647E-1,-1.375892E0,1.4458073E0,-6.656999E-1,1.3683194E-1,-1.6942623E0,-2.9645196E-1,1.1363538E-1,9.6810654E-2,-1.0754429E0,-1.2580809E-1,-3.2421162E-3,1.3683139E-1,-1.433166E-1,-5.081055E-1,-1.2524308E-1,9.6610986E-2,-1.4331676E-1,4.344899E-2,-1.032951E-1],"categories":[],"categories_nodes":[],"categories_segments":[],"categories_sizes":[],"default_left":[0,0,0,0,0,0,0,0,0,0,0,0,0,0,0,0,0,0,0,0,0],"id":0,"left_children":[1,3,5,7,9,-1,11,13,-1,-1,15,-1,-1,-1,-1,17,-1,19,-1,-1,-1],"loss_changes":[1.0707658E2,6.299192E1,3.947782E1,1.3372131E1,1.76189E1,0E0,5.7677994E0,1.575829E1,0E0,0E0,7.082514E0,0E0,0E0,0E0,0E0,9.070723E0,0E0,5.7649283E0,0E0,0E0,0E0],"parents":[2147483647,0,0,1,1,2,2,3,3,4,4,6,6,7,7,10,10,15,15,17,17],"right_children":[2,4,6,8,10,-1,12,14,-1,-1,16,-1,-1,-1,-1,18,-1,20,-1,-1,-1],"split_conditions":[3.7034622E-1,3.4848148E-1,-1.898927E-1,-3.7022933E-1,-4.663413E-2,1.3683194E-1,8.063682E-2,-5.3205855E-2,1.1363538E-1,9.6810654E-2,1.3752466E-1,-1.2580809E-1,-3.2421162E-3,1.3683139E-1,-1.433166E-1,3.8976574E-1,-1.2524308E-1,2.5673118E-1,-1.4331676E-1,4.344899E-2,-1.032951E-1],"split_indices":[5,0,14,1,22,0,19,22,0,0,14,0,0,0,0,2,0,10,0,0,0],"split_type":[0,0,0,0,0,0,0,0,0,0,0,0,0,0,0,0,0,0,0,0,0],"sum_hessian":[1.0144561E2,6.421557E1,3.723004E1,4.3226826E1,2.0988747E1,3.2482586E0,3.398178E1,3.9978566E0,3.922897E1,3.4981246E0,1.7490623E1,3.1982853E1,1.9989283E0,1.7490623E0,2.2487943E0,9.744776E0,7.745847E0,6.996249E0,2.7485263E0,5.2471867E0,1.7490623E0],"tree_param":{"num_deleted":"0","num_feature":"26","num_nodes":"21","size_leaf_vector":"1"}},{"base_weights":[2.5098251E-2,7.341569E-1,-1.2914678E0,1.3302228E0,-6.0369873E-1,8.9353114E-2,-1.6768764E0,-2.7674454E-1,1.036541E-1,9.046015E-2,-9.871116E-1,-1.2940824E-1,-7.0975035E-1,1.282847E-1,-1.3352726E-1,-1.370628E-1,-5.907387E-1,4.942936E-2,-1.3886675E-1,-1.1506154E-1,-1.3361672E-1,4.7045488E-2,-9.462396E-2],"categories":[],"categories_nodes":[],"categories_segments":[],"categories_sizes":[],"default_left":[0,0,0,0,0,0,0,0,0,0,0,0,0,0,0,0,0,0,0,0,0,0,0],"id":1,"left_children":[1,3,5,7,9,-1,11,13,-1,-1,15,-1,17,-1,-1,-1,19,-1,-1,21,-1,-1,-1],"loss_changes":[9.646877E1,5.356108E1,3.5800743E1,1.124099E1,1.5048853E1,0E0,5.2262497E0,1.3691519E1,0E0,0E0,6.6268196E0,0E0,8.55917E0,0E0,0E0,0E0,7.666374E0,0E0,0E0,8.746585E0,0E0,0E0,0E0],"parents":[2147483647,0,0,1,1,2,2,3,3,4,4,6,6,7,7,10,10,12,12,16,16,19,19],"right_children":[2,4,6,8,10,-1,12,14,-1,-1,16,-1,18,-1,-1,-1,20,-1,-1,22,-1,-1,-1],"split_conditions":[3.7268952E-1,3.4848148E-1,-1.3940944E-1,-3.7022933E-1,-4.663413E-2,8.9353114E-2,4.917616E-2,-5.3205855E-2,1.036541E-1,9.046015E-2,3.342393E-1,-1.2940824E-1,1.2498945E-1,1.282847E-1,-1.3352726E-1,-1.370628E-1,3.8976574E-1,4.942936E-2,-1.3886675E-1,1.3752466E-1,-1.3361672E-1,4.7045488E-2,-9.462396E-2],"split_indices":[5,0,14,1,22,0,19,22,0,0,8,0,21,0,0,0,2,0,0,14,0,0,0],"split_type":[0,0,0,0,0,0,0,0,0,0,0,0,0,0,0,0,0,0,0,0,0,0,0],"sum_hessian":[1.0333844E2,6.71654E1,3.617304E1,4.646394E1,2.0701458E1,4.7205334E0,3.1452505E1,3.9801228E0,4.2483818E1,3.4821393E0,1.7219318E1,2.6707773E1,4.744732E0,1.7354083E0,2.2447145E0,4.991764E0,1.2227554E1,2.2472847E0,2.4974475E0,8.984991E0,3.2425635E0,5.490438E0,3.4945536E0],"tree_param":{"num_deleted":"0","num_feature":"26","num_nodes":"23","size_leaf_vector":"1"}},{"base_weights":[3.983482E-2,7.6263636E-1,-1.2047652E0,1.314178E0,-5.0825036E-1,1.23249166E-1,-1.5117111E0,-2.6069844E-1,1.0280628E-1,1.0176523E-1,-8.6831325E-1,-1.14289485E-1,-1.1762977E-2,1.2126728E-1,-1.2558648E-1,-1.283929E-1,-4.086164E-1,-1.1337011E-1,1.5663889E-1,1.3876477E-1,-2.8031578E-2],"categories":[],"categories_nodes":[],"categories_segments":[],"categories_sizes":[],"default_left":[0,0,0,0,0,0,0,0,0,0,0,0,0,0,0,0,0,0,0,0,0],"id":2,"left_children":[1,3,5,7,9,-1,11,13,-1,-1,15,-1,-1,-1,-1,-1,17,-1,19,-1,-1],"loss_changes":[8.968089E1,4.4205173E1,3.333745E1,1.0699722E1,1.3483479E1,0E0,5.3958817E0,1.200665E1,0E0,0E0,7.160301E0,0E0,0E0,0E0,0E0,0E0,7.479087E0,0E0,7.576491E0,0E0,0E0],"parents":[2147483647,0,0,1,1,2,2,3,3,4,4,6,6,7,7,10,10,16,16,18,18],"right_children":[2,4,6,8,10,-1,12,14,-1,-1,16,-1,-1,-1,-1,-1,18,-1,20,-1,-1],"split_conditions":[3.7034622E-1,3.4848148E-1,-1.898927E-1,-3.7022933E-1,-4.663413E-2,1.23249166E-1,7.754806E-2,-5.3205855E-2,1.0280628E-1,1.0176523E-1,3.342393E-1,-1.14289485E-1,-1.1762977E-2,1.2126728E-1,-1.2558648E-1,-1.283929E-1,1.711237E-1,-1.1337011E-1,-9.745085E-2,1.3876477E-1,-2.8031578E-2],"split_indices":[5,0,14,1,22,0,19,22,0,0,8,0,0,0,0,0,18,0,15,0,0],"split_type":[0,0,0,0,0,0,0,0,0,0,0,0,0,0,0,0,0,0,0,0,0],"sum_hessian":[9.968984E1,6.3064907E1,3.662494E1,4.3978886E1,1.9086023E1,3.4353392E0,3.3189598E1,3.9286137E0,4.005027E1,2.9594512E0,1.6126572E1,3.04478E1,2.7417977E0,1.7082465E0,2.2203672E0,5.2002506E0,1.0926322E1,3.4771528E0,7.4491687E0,1.7415832E0,5.7075853E0],"tree_param":{"num_deleted":"0","num_feature":"26","num_nodes":"21","size_leaf_vector":"1"}},{"base_weights":[-8.479921E-3,6.219434E-1,-1.1538827E0,1.1931753E0,-5.816827E-1,1.1712217E-1,-9.9518605E-2,-2.7724287E-1,9.195333E-2,7.892106E-2,-6.36956E-2,8.149089E-2,-1.1902581E-1],"categories":[],"categories_nodes":[],"categories_segments":[],"categories_sizes":[],"default_left":[0,0,0,0,0,0,0,0,0,0,0,0,0],"id":3,"left_children":[1,3,5,7,9,-1,-1,11,-1,-1,-1,-1,-1],"loss_changes":[7.347883E1,4.5126698E1,2.7350662E1,7.8828506E0,1.1851227E1,0E0,0E0,6.9125514E0,0E0,0E0,0E0,0E0,0E0],"parents":[2147483647,0,0,1,1,2,2,3,3,4,4,7,7],"right_children":[2,4,6,8,10,-1,-1,12,-1,-1,-1,-1,-1],"split_conditions":[3.7268952E-1,3.4848148E-1,-1.898927E-1,-3.7022933E-1,-4.663413E-2,1.1712217E-1,-9.9518605E-2,-5.178204E-2,9.195333E-2,7.892106E-2,-6.36956E-2,8.149089E-2,-1.1902581E-1],"split_indices":[5,0,14,1,22,0,0,22,0,0,0,0,0],"split_type":[0,0,0,0,0,0,0,0,0,0,0,0,0],"sum_hessian":[1.017587E2,6.563407E1,3.612463E1,4.4509975E1,2.1124092E1,3.126004E0,3.2998627E1,3.3698308E0,4.114015E1,3.4034183E0,1.7720675E1,1.6741649E0,1.695666E0],"tree_param":{"num_deleted":"0","num_feature":"26","num_nodes":"13","size_leaf_vector":"1"}},{"base_weights":[1.8508302E-2,6.9260347E-1,-9.891078E-1,1.2367883E0,-4.675674E-1,9.387821E-1,-1.3283854E0,-2.32913E-1,9.713558E-2,7.4396485E-1,-8.8446474E-1,1.1950125E-1,-6.951922E-2,-1.0574355E-1,-1.8670402E-1,1.11858286E-1,-1.1463424E-1,-3.562467E-2,1.23971224E-1,4.9326204E-2,-8.266842E-2,7.540916E-2,-7.8621544E-2],"categories":[],"categories_nodes":[],"categories_segments":[],"categories_sizes":[],"default_left":[0,0,0,0,0,0,0,0,0,0,0,0,0,0,0,0,0,0,0,0,0,0,0],"id":4,"left_children":[1,3,5,7,9,11,13,15,-1,17,19,-1,-1,-1,21,-1,-1,-1,-1,-1,-1,-1,-1],"loss_changes":[6.754708E1,3.761859E1,2.6073395E1,8.993076E0,9.609142E0,8.855148E0,7.0524216E0,9.711028E0,0E0,6.267393E0,6.6694317E0,0E0,0E0,0E0,5.5228786E0,0E0,0E0,0E0,0E0,0E0,0E0,0E0,0E0],"parents":[2147483647,0,0,1,1,2,2,3,3,4,4,5,5,6,6,7,7,9,9,10,10,14,14],"right_children":[2,4,6,8,10,12,14,16,-1,18,20,-1,-1,-1,22,-1,-1,-1,-1,-1,-1,-1,-1],"split_conditions":[3.6378622E-1,3.4848148E-1,-1.3940944E-1,-3.7022933E-1,7.412472E-2,1.3282035E-1,6.1937943E-2,-5.3205855E-2,9.713558E-2,2.1701877E-1,-1.20516784E-1,1.1950125E-1,-6.951922E-2,-1.0574355E-1,1.2498945E-1,1.11858286E-1,-1.1463424E-1,-3.562467E-2,1.23971224E-1,4.9326204E-2,-8.266842E-2,7.540916E-2,-7.8621544E-2],"split_indices":[5,0,14,1,14,17,19,22,0,16,15,0,0,0,21,0,0,0,0,0,0,0,0],"split_type":[0,0,0,0,0,0,0,0,0,0,0,0,0,0,0,0,0,0,0,0,0,0,0],"sum_hessian":[9.944666E1,5.9584587E1,3.9862072E1,4.055979E1,1.9024796E1,5.9652805E0,3.3896793E1,3.7758217E0,3.678397E1,4.8705654E0,1.4154229E1,4.2678413E0,1.6974391E0,2.9230904E1,4.6658897E0,1.639246E0,2.1365757E0,2.1940575E0,2.676508E0,2.225717E0,1.1928513E1,1.9857005E0,2.6801896E0],"tree_param":{"num_deleted":"0","num_feature":"26","num_nodes":"23","size_leaf_vector":"1"}},{"base_weights":[-8.174234E-3,5.88847E-1,-1.052888E0,1.1255386E0,-5.147078E-1,9.365202E-2,-9.209329E-2,2.6139534E-1,9.3502074E-2,6.9969214E-2,-7.904249E-1,9.901607E-2,-1.3671558E-1,-1.0508142E0,2.3940003E-2,6.012647E-2,-1.04767494E-1,-9.1702156E-2,9.933004E-2],"categories":[],"categories_nodes":[],"categories_segments":[],"categories_sizes":[],"default_left":[0,0,0,0,0,0,0,0,0,0,0,0,0,0,0,0,0,0,0],"id":5,"left_children":[1,3,5,7,9,-1,-1,11,-1,-1,13,-1,-1,15,-1,17,-1,-1,-1],"loss_changes":[6.006657E1,3.6295998E1,2.1997921E1,7.489502E0,8.371868E0,0E0,0E0,2.0600134E1,0E0,0E0,5.0019894E0,0E0,0E0,6.8315687E0,0E0,7.3543696E0,0E0,0E0,0E0],"parents":[2147483647,0,0,1,1,2,2,3,3,4,4,7,7,10,10,13,13,15,15],"right_children":[2,4,6,8,10,-1,-1,12,-1,-1,14,-1,-1,16,-1,18,-1,-1,-1],"split_conditions":[3.7034622E-1,3.4848148E-1,-1.5546021E-1,-3.5738188E-1,-4.663413E-2,9.365202E-2,-9.209329E-2,-4.7070783E-2,9.3502074E-2,6.9969214E-2,-3.0334398E-2,9.901607E-2,-1.3671558E-1,-9.745085E-2,2.3940003E-2,1.4251645E-1,-1.04767494E-1,-9.1702156E-2,9.933004E-2],"split_indices":[5,0,18,1,22,0,0,22,0,0,19,0,0,15,0,18,0,0,0],"split_type":[0,0,0,0,0,0,0,0,0,0,0,0,0,0,0,0,0,0,0],"sum_hessian":[9.630428E1,6.1282978E1,3.5021305E1,4.123108E1,2.0051897E1,3.467542E0,3.1553764E1,8.067218E0,3.3163864E1,3.0886471E0,1.696325E1,5.3048754E0,2.7623427E0,1.37919445E1,3.1713045E0,3.9499679E0,9.841977E0,1.9668148E0,1.983153E0],"tree_param":{"num_deleted":"0","num_feature":"26","num_nodes":"19","size_leaf_vector":"1"}},{"base_weights":[-5.470585E-3,5.8947295E-1,-9.084263E-1,1.0719053E0,-5.54509E-1,9.20942E-2,-1.1415186E0,4.0765262E-1,9.1526344E-2,-9.0703267E-1,7.1374215E-2,-8.848084E-2,2.1099275E-2,9.013242E-2,-1.0035458E-1,3.0755408E-2,-8.733992E-2],"categories":[],"categories_nodes":[],"categories_segments":[],"categories_sizes":[],"default_left":[0,0,0,0,0,0,0,0,0,0,0,0,0,0,0,0,0],"id":6,"left_children":[1,3,5,7,9,-1,11,13,-1,15,-1,-1,-1,-1,-1,-1,-1],"loss_changes":[5.136555E1,3.181041E1,1.9687805E1,6.3450394E0,9.487482E0,0E0,6.0757294E0,1.719918E1,0E0,6.407338E0,0E0,0E0,0E0,0E0,0E0,0E0,0E0],"parents":[2147483647,0,0,1,1,2,2,3,3,4,4,6,6,7,7,9,9],"right_children":[2,4,6,8,10,-1,12,14,-1,16,-1,-1,-1,-1,-1,-1,-1],"split_conditions":[3.6378622E-1,3.5549536E-1,-3.2751128E-2,-3.450905E-1,-3.6215752E-2,9.20942E-2,8.063682E-2,-2.6668802E-1,9.1526344E-2,-4.1345164E-2,7.1374215E-2,-8.848084E-2,2.1099275E-2,9.013242E-2,-1.0035458E-1,3.0755408E-2,-8.733992E-2],"split_indices":[5,0,6,1,19,0,19,11,0,22,0,0,0,0,0,0,0],"split_type":[0,0,0,0,0,0,0,0,0,0,0,0,0,0,0,0,0],"sum_hessian":[9.56158E1,5.7638607E1,3.7977192E1,4.054166E1,1.7096947E1,3.6026173E0,3.4374577E1,1.0615127E1,2.9926535E1,1.396871E1,3.1282363E0,3.1684805E1,2.6897702E0,7.1825776E0,3.4325495E0,2.8207722E0,1.1147938E1],"tree_param":{"num_deleted":"0","num_feature":"26","num_nodes":"17","size_leaf_vector":"1"}},{"base_weights":[-1.12128435E-2,3.7155968E-1,-1.1969426E0,7.934221E-1,-4.0857044E-1,7.618966E-2,-9.5766656E-2,1.0494844E0,-1.6625522E-1,-1.2773189E-1,-1.5923688E-1,2.8229222E-1,9.426599E-2,1.1146372E-1,-6.1898954E-2,8.88437E-2,-5.415876E-1,1.027424E-1,-7.10234E-2,8.454305E-2,-5.2878663E-2],"categories":[],"categories_nodes":[],"categories_segments":[],"categories_sizes":[],"default_left":[0,0,0,0,0,0,0,0,0,0,0,0,0,0,0,0,0,0,0,0,0],"id":7,"left_children":[1,3,5,7,9,-1,-1,11,13,-1,15,17,-1,-1,-1,-1,19,-1,-1,-1,-1],"loss_changes":[4.184427E1,2.2937603E1,8.800461E0,1.1115946E1,8.637226E0,0E0,0E0,8.140896E0,1.2030399E1,0E0,1.1359808E1,1.5327675E1,0E0,0E0,0E0,0E0,6.137208E0,0E0,0E0,0E0,0E0],"parents":[2147483647,0,0,1,1,2,2,3,3,4,4,7,7,8,8,10,10,11,11,16,16],"right_children":[2,4,6,8,10,-1,-1,12,14,-1,16,18,-1,-1,-1,-1,20,-1,-1,-1,-1],"split_conditions":[3.8496983E-1,3.4121653E-1,-8.712574E-2,3.7995097E-1,3.1231743E-1,7.618966E-2,-9.5766656E-2,-3.450905E-1,1.6969088E-1,-1.2773189E-1,-3.973409E-2,-2.7639648E-1,9.426599E-2,1.1146372E-1,-6.1898954E-2,8.88437E-2,3.6797488E-1,1.027424E-1,-7.10234E-2,8.454305E-2,-5.2878663E-2],"split_indices":[5,0,10,3,8,0,0,1,16,0,22,11,0,0,0,0,4,0,0,0,0],"split_type":[0,0,0,0,0,0,0,0,0,0,0,0,0,0,0,0,0,0,0,0,0],"sum_hessian":[9.219543E1,6.9696335E1,2.2499092E1,4.523507E1,2.4461264E1,1.5675666E0,2.0931526E1,3.570755E1,9.52752E0,3.6619465E0,2.0799316E1,9.969633E0,2.5737917E1,2.7621994E0,6.7653213E0,4.391809E0,1.6407507E1,5.208633E0,4.7609997E0,1.7870427E0,1.4620464E1],"tree_param":{"num_deleted":"0","num_feature":"26","num_nodes":"21","size_leaf_vector":"1"}},{"base_weights":[-1.6658198E-2,4.8313913E-1,-9.697564E-1,9.222969E-1,-5.3190774E-1,7.164272E-2,-8.298147E-2,2.601801E-1,8.091816E-2,9.7596675E-2,-7.875022E-1,9.963897E-2,-7.7261515E-2,4.9288508E-2,-7.2764345E-2],"categories":[],"categories_nodes":[],"categories_segments":[],"categories_sizes":[],"default_left":[0,0,0,0,0,0,0,0,0,0,0,0,0,0,0],"id":8,"left_children":[1,3,5,7,9,-1,-1,11,-1,-1,13,-1,-1,-1,-1],"loss_changes":[4.3218616E1,2.6530727E1,1.341811E1,6.4276543E0,8.848677E0,0E0,0E0,1.7193607E1,0E0,0E0,5.964366E0,0E0,0E0,0E0,0E0],"parents":[2147483647,0,0,1,1,2,2,3,3,4,4,7,7,10,10],"right_children":[2,4,6,8,10,-1,-1,12,-1,-1,14,-1,-1,-1,-1],"split_conditions":[3.4595695E-1,3.5549536E-1,-8.712574E-2,-3.6257085E-1,4.0598676E-2,7.164272E-2,-8.298147E-2,-2.7639648E-1,8.091816E-2,9.7596675E-2,-4.663413E-2,9.963897E-2,-7.7261515E-2,4.9288508E-2,-7.2764345E-2],"split_indices":[1,0,10,5,14,0,0,11,0,0,22,0,0,0,0],"split_type":[0,0,0,0,0,0,0,0,0,0,0,0,0,0,0],"sum_hessian":[9.072753E1,5.951718E1,3.1210354E1,4.154349E1,1.7973688E1,3.0475736E0,2.816278E1,1.083706E1,3.0706432E1,2.1056373E0,1.586805E1,5.848822E0,4.9882383E0,2.2932556E0,1.3574795E1],"tree_param":{"num_deleted":"0","num_feature":"26","num_nodes":"15","size_leaf_vector":"1"}},{"base_weights":[2.8953147E-3,5.3753E-1,-8.417639E-1,9.99579E-1,-3.5722497E-1,7.7495074E-1,-1.1410092E0,2.9006964E-1,9.004606E-2,1.7099087E-1,-8.342843E-2,1.0646383E-1,-6.762179E-2,-9.221126E-2,-7.053247E-3,9.6829064E-2,-7.022252E-2,6.305727E-1,-1.05539545E-1,7.252652E-2,-8.037802E-2],"categories":[],"categories_nodes":[],"categories_segments":[],"categories_sizes":[],"default_left":[0,0,0,0,0,0,0,0,0,0,0,0,0,0,0,0,0,0,0,0,0],"id":9,"left_children":[1,3,5,7,9,11,13,15,-1,17,-1,-1,-1,-1,-1,-1,-1,19,-1,-1,-1],"loss_changes":[4.0185173E1,2.2529121E1,1.6687399E1,7.3124924E0,8.181227E0,6.9964657E0,5.337639E0,1.4625172E1,0E0,8.768025E0,0E0,0E0,0E0,0E0,0E0,0E0,0E0,6.4361E0,0E0,0E0,0E0],"parents":[2147483647,0,0,1,1,2,2,3,3,4,4,5,5,6,6,7,7,9,9,17,17],"right_children":[2,4,6,8,10,12,14,16,-1,18,-1,-1,-1,-1,-1,-1,-1,20,-1,-1,-1],"split_conditions":[3.6378622E-1,3.4848148E-1,-1.3940944E-1,-3.6257085E-1,1.3752466E-1,1.3282035E-1,6.1937943E-2,-2.7639648E-1,9.004606E-2,3.9026877E-1,-8.342843E-2,1.0646383E-1,-6.762179E-2,-9.221126E-2,-7.053247E-3,9.6829064E-2,-7.022252E-2,2.5673118E-1,-1.05539545E-1,7.252652E-2,-8.037802E-2],"split_indices":[5,0,14,5,14,17,19,11,0,2,0,0,0,0,0,0,0,10,0,0,0],"split_type":[0,0,0,0,0,0,0,0,0,0,0,0,0,0,0,0,0,0,0,0,0],"sum_hessian":[8.898712E1,5.4494408E1,3.4492714E1,3.5936768E1,1.8557638E1,5.387257E0,2.9105455E1,1.0344688E1,2.559208E1,1.1364904E1,7.1927347E0,3.7713454E0,1.615912E0,2.4887648E1,4.2178087E0,5.6059227E0,4.7387652E0,8.922249E0,2.4426556E0,7.265858E0,1.6563902E0],"tree_param":{"num_deleted":"0","num_feature":"26","num_nodes":"21","size_leaf_vector":"1"}},{"base_weights":[-3.0011276E-2,3.3522215E-1,-8.143053E-2,9.286554E-2,5.8241922E-2,-1.965905E-1,9.1698416E-2,9.818909E-2,-3.0317575E-1,-1.17158785E-1,-1.9739467E-1,-2.9702898E-2,4.366967E-2],"categories":[],"categories_nodes":[],"categories_segments":[],"categories_sizes":[],"default_left":[0,0,0,0,0,0,0,0,0,0,0,0,0],"id":10,"left_children":[1,3,-1,-1,5,7,-1,-1,9,-1,11,-1,-1],"loss_changes":[3.52821E1,1.7702408E1,0E0,0E0,1.6072834E1,7.1363015E0,0E0,0E0,5.690113E0,0E0,6.790629E0,0E0,0E0],"parents":[2147483647,0,0,1,1,4,4,5,5,8,8,10,10],"right_children":[2,4,-1,-1,6,8,-1,-1,10,-1,12,-1,-1],"split_conditions":[3.8496983E-1,-1.2753947E-2,-8.143053E-2,9.286554E-2,2.931314E-1,-2.4546446E-1,9.1698416E-2,9.818909E-2,-3.5738188E-1,-1.17158785E-1,6.3128527E-3,-2.9702898E-2,4.366967E-2],"split_indices":[5,6,0,0,16,15,0,0,1,0,25,0,0],"split_type":[0,0,0,0,0,0,0,0,0,0,0,0,0],"sum_hessian":[8.524044E1,6.4464775E1,2.0775667E1,1.4077046E1,5.0387726E1,4.186476E1,8.522965E0,2.615747E0,3.9249012E1,2.8122816E0,3.6436733E1,2.854814E1,7.888593E0],"tree_param":{"num_deleted":"0","num_feature":"26","num_nodes":"13","size_leaf_vector":"1"}},{"base_weights":[7.1280217E-3,4.9591762E-1,-7.6308465E-1,9.381876E-1,-3.4347963E-1,9.628952E-2,-6.719138E-2,2.694738E-1,8.5235484E-2,4.7319733E-2,-6.7636555E-1,9.257564E-2,-6.304372E-2,5.3547338E-2,-6.690774E-2],"categories":[],"categories_nodes":[],"categories_segments":[],"categories_sizes":[],"default_left":[0,0,0,0,0,0,0,0,0,0,0,0,0,0,0],"id":11,"left_children":[1,3,5,7,9,-1,-1,11,-1,-1,13,-1,-1,-1,-1],"loss_changes":[3.1218763E1,1.8833134E1,1.3549593E1,6.2090015E0,5.940899E0,0E0,0E0,1.2065933E1,0E0,0E0,5.315523E0,0E0,0E0,0E0,0E0],"parents":[2147483647,0,0,1,1,2,2,3,3,4,4,7,7,10,10],"right_children":[2,4,6,8,10,-1,-1,12,-1,-1,14,-1,-1,-1,-1],"split_conditions":[3.6378622E-1,3.4848148E-1,-4.2945173E-2,-3.6257085E-1,7.412472E-2,9.628952E-2,-6.719138E-2,-2.7639648E-1,8.5235484E-2,4.7319733E-2,-1.20516784E-1,9.257564E-2,-6.304372E-2,5.3547338E-2,-6.690774E-2],"split_indices":[5,0,6,5,14,0,0,11,0,0,15,0,0,0,0],"split_type":[0,0,0,0,0,0,0,0,0,0,0,0,0,0,0],"sum_hessian":[8.292453E1,5.0730278E1,3.2194252E1,3.322459E1,1.7505692E1,2.7127874E0,2.9481462E1,9.792522E0,2.3432066E1,4.3090425E0,1.3196649E1,5.154086E0,4.638436E0,2.1431541E0,1.1053494E1],"tree_param":{"num_deleted":"0","num_feature":"26","num_nodes":"15","size_leaf_vector":"1"}},{"base_weights":[2.6533136E-2,4.366213E-1,-7.8156155E-1,7.147602E-2,-7.879651E-2,6.471876E-2,-7.1974784E-2,9.356247E-2,-1.4821137E-1,-2.2355056E-1,8.227814E-2,-3.2205675E-2,7.2819866E-2],"categories":[],"categories_nodes":[],"categories_segments":[],"categories_sizes":[],"default_left":[0,0,0,0,0,0,0,0,0,0,0,0,0],"id":12,"left_children":[1,3,5,-1,7,-1,-1,9,-1,11,-1,-1,-1],"loss_changes":[2.6763794E1,1.613898E1,1.1440954E1,0E0,1.00027075E1,0E0,0E0,9.005286E0,0E0,6.06816E0,0E0,0E0,0E0],"parents":[2147483647,0,0,1,1,2,2,4,4,7,7,9,9],"right_children":[2,4,6,-1,8,-1,-1,10,-1,12,-1,-1,-1],"split_conditions":[3.7268952E-1,1.0137047E-1,-1.3940944E-1,7.147602E-2,3.5032952E-1,6.471876E-2,-7.1974784E-2,2.7565178E-1,-1.4821137E-1,-3.6215752E-2,8.227814E-2,-3.2205675E-2,7.2819866E-2],"split_indices":[5,10,14,0,5,0,0,16,0,19,0,0,0],"split_type":[0,0,0,0,0,0,0,0,0,0,0,0,0],"sum_hessian":[8.076221E1,5.3574486E1,2.7187716E1,2.5105637E1,2.846885E1,3.4340153E0,2.37537E1,2.6249426E1,2.2194238E0,2.0299234E1,5.950192E0,1.70991E1,3.2001345E0],"tree_param":{"num_deleted":"0","num_feature":"26","num_nodes":"13","size_leaf_vector":"1"}},{"base_weights":[1.1977867E-2,3.2880685E-1,-1.0301706E0,6.8730426E-1,-3.1709594E-1,4.540602E-2,-8.3890915E-2,9.347722E-1,9.026509E-2,2.0705143E-2,-9.0932965E-2,1.9964357E-1,8.994303E-2,9.997049E-2,-2.7319232E-2,8.217176E-2,-2.506284E-2,8.2495704E-2,-6.4314194E-2],"categories":[],"categories_nodes":[],"categories_segments":[],"categories_sizes":[],"default_left":[0,0,0,0,0,0,0,0,0,0,0,0,0,0,0,0,0,0,0],"id":13,"left_children":[1,3,5,7,9,-1,-1,11,13,15,-1,17,-1,-1,-1,-1,-1,-1,-1],"loss_changes":[2.5958153E1,1.3960154E1,5.1778393E0,5.728199E0,7.1378193E0,0E0,0E0,7.054825E0,7.304034E0,6.9929023E0,0E0,9.681003E0,0E0,0E0,0E0,0E0,0E0,0E0,0E0],"parents":[2147483647,0,0,1,1,2,2,3,3,4,4,7,7,8,8,9,9,11,11],"right_children":[2,4,6,8,10,-1,-1,12,14,16,-1,18,-1,-1,-1,-1,-1,-1,-1],"split_conditions":[3.8496983E-1,3.4121653E-1,-7.5967975E-2,1.4298417E-1,2.666992E-1,4.540602E-2,-8.3890915E-2,-3.450905E-1,-7.550629E-3,-3.973409E-2,-9.0932965E-2,-2.6272852E-2,8.994303E-2,9.997049E-2,-2.7319232E-2,8.217176E-2,-2.506284E-2,8.2495704E-2,-6.4314194E-2],"split_indices":[5,0,10,17,1,0,0,1,23,22,0,10,0,0,0,0,0,0,0],"split_type":[0,0,0,0,0,0,0,0,0,0,0,0,0,0,0,0,0,0,0],"sum_hessian":[7.861751E1,6.028881E1,1.83287E1,3.8770123E1,2.1518686E1,1.6697392E0,1.665896E1,2.7409206E1,1.1360918E1,1.6010786E1,5.507899E0,8.842839E0,1.8566366E1,3.0022547E0,8.358663E0,3.9584363E0,1.2052351E1,4.7156215E0,4.1272182E0],"tree_param":{"num_deleted":"0","num_feature":"26","num_nodes":"19","size_leaf_vector":"1"}},{"base_weights":[-1.6972572E-2,2.7276173E-1,-6.670402E-2,6.6500336E-1,-3.9894754E-1,8.1707597E-1,-3.9864978E-1,-1.1465359E-1,-1.7956531E-1,1.8023793E-1,7.4278E-2,-9.131107E-2,5.6951724E-2,6.318354E-2,-3.986746E-2,8.792179E-2,-5.8999736E-2],"categories":[],"categories_nodes":[],"categories_segments":[],"categories_sizes":[],"default_left":[0,0,0,0,0,0,0,0,0,0,0,0,0,0,0,0,0],"id":14,"left_children":[1,3,-1,5,7,9,11,-1,13,15,-1,-1,-1,-1,-1,-1,-1],"loss_changes":[2.075498E1,1.5398612E1,0E0,5.968399E0,5.856469E0,5.0171432E0,5.0680733E0,0E0,7.7252097E0,9.843657E0,0E0,0E0,0E0,0E0,0E0,0E0,0E0],"parents":[2147483647,0,0,1,1,3,3,4,4,5,5,6,6,8,8,9,9],"right_children":[2,4,-1,6,8,10,12,-1,14,16,-1,-1,-1,-1,-1,-1,-1],"split_conditions":[3.8496983E-1,3.4121653E-1,-6.670402E-2,1.9278769E-1,3.1231743E-1,-3.6257085E-1,2.3071262E-1,-1.1465359E-1,3.6773184E-1,-2.7639648E-1,7.4278E-2,-9.131107E-2,5.6951724E-2,6.318354E-2,-3.986746E-2,8.792179E-2,-5.8999736E-2],"split_indices":[5,0,0,17,8,5,16,0,2,11,0,0,0,0,0,0,0],"split_type":[0,0,0,0,0,0,0,0,0,0,0,0,0,0,0,0,0],"sum_hessian":[7.653731E1,5.8444855E1,1.809245E1,3.689828E1,2.1546574E1,3.2282764E1,4.6155186E0,3.2412887E0,1.8305285E1,8.943643E0,2.333912E1,2.6416652E0,1.9738532E0,4.8490024E0,1.3456283E1,4.3595514E0,4.584091E0],"tree_param":{"num_deleted":"0","num_feature":"26","num_nodes":"17","size_leaf_vector":"1"}},{"base_weights":[-1.1668638E-2,7.835674E-2,-2.4424706E-1,1.2808435E-1,-6.1321985E-2,-1.3378319E-1,8.7574996E-2,1.6946986E-1,-5.3158227E-2,-2.6740813E-1,5.50159E-2,7.491339E-2,-4.7938325E-2],"categories":[],"categories_nodes":[],"categories_segments":[],"categories_sizes":[],"default_left":[0,0,0,0,0,0,0,0,0,0,0,0,0],"id":15,"left_children":[1,-1,3,5,-1,7,-1,9,-1,11,-1,-1,-1],"loss_changes":[1.960881E1,0E0,1.4543953E1,1.1440024E1,0E0,5.984902E0,0E0,5.722273E0,0E0,6.9428883E0,0E0,0E0,0E0],"parents":[2147483647,0,0,2,2,3,3,5,5,7,7,9,9],"right_children":[2,-1,4,6,-1,8,-1,10,-1,12,-1,-1,-1],"split_conditions":[-1.2753947E-2,7.835674E-2,3.7226024E-1,2.9032335E-1,-6.1321985E-2,1.3752466E-1,8.7574996E-2,2.5285998E-1,-5.3158227E-2,-2.1399367E-1,5.50159E-2,7.491339E-2,-4.7938325E-2],"split_indices":[6,0,5,16,0,14,0,20,0,17,0,0,0],"split_type":[0,0,0,0,0,0,0,0,0,0,0,0,0],"sum_hessian":[7.454179E1,1.27137165E1,6.182807E1,3.8901825E1,2.292625E1,3.1545725E1,7.356097E0,2.1246857E1,1.029887E1,1.243469E1,8.812165E0,2.9575286E0,9.477161E0],"tree_param":{"num_deleted":"0","num_feature":"26","num_nodes":"13","size_leaf_vector":"1"}},{"base_weights":[2.8039701E-3,2.8872302E-1,-6.6154554E-2,6.0704462E-2,-1.2460355E-1,2.6360044E-1,-7.6824504E-1,-1.0830477E-1,5.16635E-1,7.115965E-2,-7.237021E-2,6.99617E-2,-4.9379557E-2],"categories":[],"categories_nodes":[],"categories_segments":[],"categories_sizes":[],"default_left":[0,0,0,0,0,0,0,0,0,0,0,0,0],"id":16,"left_children":[1,3,-1,-1,5,7,9,-1,11,-1,-1,-1,-1],"loss_changes":[1.9062094E1,1.2920277E1,0E0,0E0,7.875063E0,9.008074E0,5.621359E0,0E0,1.0177719E1,0E0,0E0,0E0,0E0],"parents":[2147483647,0,0,1,1,4,4,5,5,6,6,8,8],"right_children":[2,4,-1,-1,6,8,10,-1,12,-1,-1,-1,-1],"split_conditions":[3.8496983E-1,-4.5234323E-2,-6.6154554E-2,6.0704462E-2,1.6190098E-1,-3.5738188E-1,-1.2491011E-2,-1.0830477E-1,3.616214E-1,7.115965E-2,-7.237021E-2,6.99617E-2,-4.9379557E-2],"split_indices":[5,22,0,0,1,1,23,0,6,0,0,0,0],"split_type":[0,0,0,0,0,0,0,0,0,0,0,0,0],"sum_hessian":[7.033625E1,5.4036488E1,1.6299767E1,2.2519148E1,3.1517338E1,1.9659784E1,1.1857553E1,2.4103458E0,1.724944E1,1.5360348E0,1.0321518E1,1.2364433E1,4.885005E0],"tree_param":{"num_deleted":"0","num_feature":"26","num_nodes":"13","size_leaf_vector":"1"}},{"base_weights":[2.7637538E-2,5.033911E-1,-4.5632744E-1,8.654958E-2,8.9052774E-2,-7.5425124E-1,3.7056003E-2,-1.0366825E-1,2.8020105E-1,-9.2339605E-1,5.399481E-2,6.043895E-2,-4.09094E-2,-2.1522765E-1,-9.2953324E-2,-5.0721936E-2,6.921761E-2],"categories":[],"categories_nodes":[],"categories_segments":[],"categories_sizes":[],"default_left":[0,0,0,0,0,0,0,0,0,0,0,0,0,0,0,0,0],"id":17,"left_children":[1,3,5,-1,7,9,-1,-1,11,13,-1,-1,-1,15,-1,-1,-1],"loss_changes":[1.6298347E1,1.0841642E1,1.0304699E1,0E0,6.8440733E0,6.953353E0,0E0,0E0,1.0251683E1,6.9485245E0,0E0,0E0,0E0,5.408399E0,0E0,0E0,0E0],"parents":[2147483647,0,0,1,1,2,2,4,4,5,5,8,8,9,9,13,13],"right_children":[2,4,6,-1,8,10,-1,-1,12,14,-1,-1,-1,16,-1,-1,-1],"split_conditions":[8.474286E-2,-4.609321E-2,4.917616E-2,8.654958E-2,-3.5738188E-1,2.931314E-1,3.7056003E-2,-1.0366825E-1,3.5549536E-1,-2.7020972E-3,5.399481E-2,6.043895E-2,-4.09094E-2,3.0738336E-1,-9.2953324E-2,-5.0721936E-2,6.921761E-2],"split_indices":[17,22,19,0,1,16,0,0,0,23,0,0,0,11,0,0,0],"split_type":[0,0,0,0,0,0,0,0,0,0,0,0,0,0,0,0,0],"sum_hessian":[7.0786026E1,3.5695847E1,3.5090176E1,1.2890472E1,2.2805374E1,2.6945892E1,8.144282E0,2.4751556E0,2.033022E1,2.4256563E1,2.6893294E0,1.2140861E1,8.189359E0,8.818376E0,1.5438189E1,6.19683E0,2.6215453E0],"tree_param":{"num_deleted":"0","num_feature":"26","num_nodes":"17","size_leaf_vector":"1"}},{"base_weights":[2.6953466E-2,7.911124E-2,-1.7994153E-1,2.5537202E-1,-6.695557E-1,-7.7488013E-3,8.247728E-2,-5.8706947E-2,4.010207E-2],"categories":[],"categories_nodes":[],"categories_segments":[],"categories_sizes":[],"default_left":[0,0,0,0,0,0,0,0,0],"id":18,"left_children":[1,-1,3,5,7,-1,-1,-1,-1],"loss_changes":[1.5746007E1,0E0,1.2381447E1,1.0388853E1,5.744712E0,0E0,0E0,0E0,0E0],"parents":[2147483647,0,0,2,2,3,3,4,4],"right_children":[2,-1,4,6,8,-1,-1,-1,-1],"split_conditions":[-1.1348701E-2,7.911124E-2,3.1844562E-1,2.7565178E-1,8.063682E-2,-7.7488013E-3,8.247728E-2,-5.8706947E-2,4.010207E-2],"split_indices":[6,0,1,16,19,0,0,0,0],"split_type":[0,0,0,0,0,0,0,0,0],"sum_hessian":[6.898633E1,1.0894516E1,5.8091812E1,3.0751125E1,2.7340687E1,2.2017588E1,8.733538E0,2.4065083E1,3.2756045E0],"tree_param":{"num_deleted":"0","num_feature":"26","num_nodes":"9","size_leaf_vector":"1"}},{"base_weights":[3.3738592E-4,4.7990698E-1,-4.7877997E-1,8.4231414E-2,9.905501E-2,-6.3369846E-1,8.3648875E-2,-1.01204135E-1,2.900294E-1,-5.901569E-2,5.4802004E-2,6.2062673E-2,-3.78375E-2],"categories":[],"categories_nodes":[],"categories_segments":[],"categories_sizes":[],"default_left":[0,0,0,0,0,0,0,0,0,0,0,0,0],"id":19,"left_children":[1,3,5,-1,7,9,-1,-1,11,-1,-1,-1,-1],"loss_changes":[1.515715E1,9.082861E0,8.5565E0,0E0,6.3716903E0,8.9585705E0,0E0,0E0,9.524076E0,0E0,0E0,0E0,0E0],"parents":[2147483647,0,0,1,1,2,2,4,4,5,5,8,8],"right_children":[2,4,6,-1,8,10,-1,-1,12,-1,-1,-1,-1],"split_conditions":[8.474286E-2,-4.609321E-2,3.3418697E-1,8.4231414E-2,-3.5738188E-1,8.063682E-2,8.3648875E-2,-1.01204135E-1,3.5549536E-1,-5.901569E-2,5.4802004E-2,6.2062673E-2,-3.78375E-2],"split_indices":[17,22,11,0,1,19,0,0,0,0,0,0,0],"split_type":[0,0,0,0,0,0,0,0,0,0,0,0,0],"sum_hessian":[6.596657E1,3.2967735E1,3.2998833E1,1.1370431E1,2.1597307E1,3.0203318E1,2.7955146E0,2.3761396E0,1.9221167E1,2.6313915E1,3.889403E0,1.11862755E1,8.034891E0],"tree_param":{"num_deleted":"0","num_feature":"26","num_nodes":"13","size_leaf_vector":"1"}},{"base_weights":[2.2732245E-2,4.2432863E-1,-4.8551208E-1,7.670373E-2,1.07068196E-1,8.621968E-2,-6.4835596E-1,-9.948265E-2,2.515553E-1,-7.007856E-2,-1.0645371E-2,6.382231E-2,-2.3910794E-2,1.263945E-1,-3.13313E-2],"categories":[],"categories_nodes":[],"categories_segments":[],"categories_sizes":[],"default_left":[0,0,0,0,0,0,0,0,0,0,0,0,0,0,0],"id":20,"left_children":[1,3,5,-1,7,-1,9,-1,11,-1,13,-1,-1,-1,-1],"loss_changes":[1.3376646E1,7.798551E0,8.08923E0,0E0,5.489812E0,0E0,5.9439173E0,0E0,8.894639E0,0E0,7.468194E0,0E0,0E0,0E0,0E0],"parents":[2147483647,0,0,1,1,2,2,4,4,6,6,8,8,10,10],"right_children":[2,4,6,-1,8,-1,10,-1,12,-1,14,-1,-1,-1,-1],"split_conditions":[3.1844562E-1,-4.5234323E-2,-1.9592068E-1,7.670373E-2,-3.5738188E-1,8.621968E-2,3.0672276E-1,-9.948265E-2,3.6797488E-1,-7.007856E-2,-8.620582E-3,6.382231E-2,-2.3910794E-2,1.263945E-1,-3.13313E-2],"split_indices":[1,22,18,0,1,0,11,0,4,0,23,0,0,0,0],"split_type":[0,0,0,0,0,0,0,0,0,0,0,0,0,0,0],"sum_hessian":[6.5536736E1,3.660936E1,2.8927378E1,1.17474375E1,2.4861921E1,2.5055647E0,2.6421812E1,2.1475022E0,2.2714418E1,1.701146E1,9.410354E0,1.0749598E1,1.1964822E1,1.8248417E0,7.585512E0],"tree_param":{"num_deleted":"0","num_feature":"26","num_nodes":"15","size_leaf_vector":"1"}},{"base_weights":[-1.6482936E-2,7.791647E-2,-1.7806944E-1,2.1882889E-1,-6.150695E-1,-5.683331E-3,7.939057E-2,-6.141845E-2,1.3661659E-2],"categories":[],"categories_nodes":[],"categories_segments":[],"categories_sizes":[],"default_left":[0,0,0,0,0,0,0,0,0],"id":21,"left_children":[1,-1,3,5,7,-1,-1,-1,-1],"loss_changes":[1.1544572E1,0E0,9.5974E0,7.963146E0,5.597968E0,0E0,0E0,0E0,0E0],"parents":[2147483647,0,0,2,2,3,3,4,4],"right_children":[2,-1,4,6,8,-1,-1,-1,-1],"split_conditions":[-4.2945173E-2,7.791647E-2,3.1844562E-1,2.7565178E-1,4.917616E-2,-5.683331E-3,7.939057E-2,-6.141845E-2,1.3661659E-2],"split_indices":[6,0,1,16,19,0,0,0,0],"split_type":[0,0,0,0,0,0,0,0,0],"sum_hessian":[6.32496E1,7.9155545E0,5.5334045E1,2.8997507E1,2.6336538E1,2.1839178E1,7.158329E0,1.9894985E1,6.441553E0],"tree_param":{"num_deleted":"0","num_feature":"26","num_nodes":"9","size_leaf_vector":"1"}},{"base_weights":[2.2962822E-2,2.5113502E-1,-5.5641353E-2,4.138021E-2,-1.7442176E-2],"categories":[],"categories_nodes":[],"categories_segments":[],"categories_sizes":[],"default_left":[0,0,0,0,0],"id":22,"left_children":[1,3,-1,-1,-1],"loss_changes":[1.1689073E1,8.331294E0,0E0,0E0,0E0],"parents":[2147483647,0,0,1,1],"right_children":[2,4,-1,-1,-1],"split_conditions":[3.8496983E-1,3.4121653E-1,-5.5641353E-2,4.138021E-2,-1.7442176E-2],"split_indices":[5,0,0,0,0],"split_type":[0,0,0,0,0],"sum_hessian":[6.2639656E1,4.8975742E1,1.3663917E1,2.9159151E1,1.9816591E1],"tree_param":{"num_deleted":"0","num_feature":"26","num_nodes":"5","size_leaf_vector":"1"}},{"base_weights":[-2.4317878E-3,7.0674986E-2,-1.912963E-1,4.2955693E-2,-6.60512E-2,4.6823535E-2,-1.6203528E-2],"categories":[],"categories_nodes":[],"categories_segments":[],"categories_sizes":[],"default_left":[0,0,0,0,0,0,0],"id":23,"left_children":[1,-1,3,5,-1,-1,-1],"loss_changes":[1.166849E1,0E0,9.065966E0,6.73898E0,0E0,0E0,0E0],"parents":[2147483647,0,0,2,2,3,3],"right_children":[2,-1,4,6,-1,-1,-1],"split_conditions":[-1.3939646E-1,7.0674986E-2,3.88333E-1,-4.5234323E-2,-6.60512E-2,4.6823535E-2,-1.6203528E-2],"split_indices":[14,0,3,22,0,0,0],"split_type":[0,0,0,0,0,0,0],"sum_hessian":[6.1045273E1,9.600211E0,5.1445065E1,3.9229584E1,1.221548E1,1.1957046E1,2.727254E1],"tree_param":{"num_deleted":"0","num_feature":"26","num_nodes":"7","size_leaf_vector":"1"}},{"base_weights":[5.5498686E-3,7.385056E-2,-1.600481E-1,1.9358261E-1,-6.2424034E-1,-4.5252573E-3,7.768348E-2,-6.833791E-2,1.4425197E-2,1.12068035E-1,-2.9445084E-2],"categories":[],"categories_nodes":[],"categories_segments":[],"categories_sizes":[],"default_left":[0,0,0,0,0,0,0,0,0,0,0],"id":24,"left_children":[1,-1,3,5,7,-1,-1,-1,9,-1,-1],"loss_changes":[1.0449132E1,0E0,8.524652E0,6.9735575E0,5.048421E0,0E0,0E0,0E0,5.5075707E0,0E0,0E0],"parents":[2147483647,0,0,2,2,3,3,4,4,8,8],"right_children":[2,-1,4,6,8,-1,-1,-1,10,-1,-1],"split_conditions":[-8.712574E-2,7.385056E-2,3.1012934E-1,2.7485022E-1,3.0672276E-1,-4.5252573E-3,7.768348E-2,-6.833791E-2,-7.550629E-3,1.12068035E-1,-2.9445084E-2],"split_indices":[10,0,1,16,11,0,0,0,23,0,0],"split_type":[0,0,0,0,0,0,0,0,0,0,0],"sum_hessian":[6.012563E1,8.194423E0,5.1931206E1,2.9475885E1,2.245532E1,2.2994732E1,6.4811535E0,1.447635E1,7.97897E0,1.7171426E0,6.2618275E0],"tree_param":{"num_deleted":"0","num_feature":"26","num_nodes":"11","size_leaf_vector":"1"}},{"base_weights":[-1.1874101E-2,8.077351E-2,-1.3895771E-1,2.0735417E-3,-6.736816E-2],"categories":[],"categories_nodes":[],"categories_segments":[],"categories_sizes":[],"default_left":[0,0,0,0,0],"id":25,"left_children":[1,-1,3,-1,-1],"loss_changes":[8.802189E0,0E0,7.4368467E0,0E0,0E0],"parents":[2147483647,0,0,2,2],"right_children":[2,-1,4,-1,-1],"split_conditions":[-1.7313427E-1,8.077351E-2,3.6212695E-1,2.0735417E-3,-6.736816E-2],"split_indices":[18,0,1,0,0],"split_type":[0,0,0,0,0],"sum_hessian":[5.9413395E1,5.84009E0,5.3573303E1,4.446932E1,9.103986E0],"tree_param":{"num_deleted":"0","num_feature":"26","num_nodes":"5","size_leaf_vector":"1"}},{"base_weights":[1.2061456E-2,7.382615E-2,-1.2582062E-1,3.4856085E-2,-6.3098446E-2,-9.354322E-2,6.96462E-2,-1.346861E-2,9.846702E-2],"categories":[],"categories_nodes":[],"categories_segments":[],"categories_sizes":[],"default_left":[0,0,0,0,0,0,0,0,0],"id":26,"left_children":[1,-1,3,5,-1,7,-1,-1,-1],"loss_changes":[8.489082E0,0E0,6.499458E0,5.3260016E0,0E0,5.6521187E0,0E0,0E0,0E0],"parents":[2147483647,0,0,2,2,3,3,5,5],"right_children":[2,-1,4,6,-1,8,-1,-1,-1],"split_conditions":[-4.2945173E-2,7.382615E-2,3.6212695E-1,2.931314E-1,-6.3098446E-2,1.5421216E-2,6.96462E-2,-1.346861E-2,9.846702E-2],"split_indices":[6,0,1,16,0,25,0,0,0],"split_type":[0,0,0,0,0,0,0,0,0],"sum_hessian":[5.905212E1,6.8973894E0,5.215473E1,4.3204193E1,8.950539E0,3.810778E1,5.0964127E0,3.5751724E1,2.356055E0],"tree_param":{"num_deleted":"0","num_feature":"26","num_nodes":"9","size_leaf_vector":"1"}},{"base_weights":[-6.409817E-3,6.705419E-2,-1.4451575E-1,-4.019651E-1,2.5327148E-2,-3.6544655E-2,7.427463E-2],"categories":[],"categories_nodes":[],"categories_segments":[],"categories_sizes":[],"default_left":[0,0,0,0,0,0,0],"id":27,"left_children":[1,-1,3,5,-1,-1,-1],"loss_changes":[7.5297604E0,0E0,6.4468074E0,5.760834E0,0E0,0E0,0E0],"parents":[2147483647,0,0,2,2,3,3],"right_children":[2,-1,4,6,-1,-1,-1],"split_conditions":[-1.2753947E-2,6.705419E-2,2.507756E-1,1.5421216E-2,2.5327148E-2,-3.6544655E-2,7.427463E-2],"split_indices":[6,0,16,25,0,0,0],"split_type":[0,0,0,0,0,0,0],"sum_hessian":[5.6538574E1,7.082785E0,4.945579E1,3.278564E1,1.6670147E1,3.0298433E1,2.4872086E0],"tree_param":{"num_deleted":"0","num_feature":"26","num_nodes":"7","size_leaf_vector":"1"}},{"base_weights":[3.221202E-2,6.611312E-2,-1.23152375E-1,1.9609892E-1,-6.1094177E-1,2.9371638E-4,8.2475245E-2,-6.7806825E-2,2.5061276E-2],"categories":[],"categories_nodes":[],"categories_segments":[],"categories_sizes":[],"default_left":[0,0,0,0,0,0,0,0,0],"id":28,"left_children":[1,-1,3,5,7,-1,-1,-1,-1],"loss_changes":[7.72158E0,0E0,7.249374E0,5.302941E0,6.383094E0,0E0,0E0,0E0,0E0],"parents":[2147483647,0,0,2,2,3,3,4,4],"right_children":[2,-1,4,6,8,-1,-1,-1,-1],"split_conditions":[-1.3939646E-1,6.611312E-2,3.5032952E-1,5.1829893E-2,4.917616E-2,2.9371638E-4,8.2475245E-2,-6.7806825E-2,2.5061276E-2],"split_indices":[14,0,5,24,19,0,0,0,0],"split_type":[0,0,0,0,0,0,0,0,0],"sum_hessian":[5.447972E1,7.928071E0,4.655165E1,2.8136616E1,1.8415035E1,2.3537485E1,4.599131E0,1.3449622E1,4.9654126E0],"tree_param":{"num_deleted":"0","num_feature":"26","num_nodes":"9","size_leaf_vector":"1"}},{"base_weights":[-3.0829517E-2,7.854633E-2,-1.473582E-1,1.4550166E-2,-7.162565E-2,1.00988455E-1,-9.550897E-2,-2.9571743E-3,8.0227606E-2],"categories":[],"categories_nodes":[],"categories_segments":[],"categories_sizes":[],"default_left":[0,0,0,0,0,0,0,0,0],"id":29,"left_children":[1,-1,3,5,-1,7,-1,-1,-1],"loss_changes":[7.356449E0,0E0,7.052257E0,5.002806E0,0E0,5.912409E0,0E0,0E0,0E0],"parents":[2147483647,0,0,2,2,3,3,5,5],"right_children":[2,-1,4,6,-1,8,-1,-1,-1],"split_conditions":[-1.7313427E-1,7.854633E-2,3.6212695E-1,3.7889427E-1,-7.162565E-2,2.8900152E-1,-9.550897E-2,-2.9571743E-3,8.0227606E-2],"split_indices":[18,0,1,6,0,12,0,0,0],"split_type":[0,0,0,0,0,0,0,0,0],"sum_hessian":[5.4756626E1,5.026353E0,4.973027E1,4.1971596E1,7.7586746E0,3.9495876E1,2.4757233E0,3.4735386E1,4.7604876E0],"tree_param":{"num_deleted":"0","num_feature":"26","num_nodes":"9","size_leaf_vector":"1"}},{"base_weights":[4.1456075E-4,7.787061E-2,-1.0883344E-1,2.0390143E-1,-3.510679E-2,-8.565991E-3,8.04429E-2,-8.3895124E-2,1.9390854E-1,6.2487464E-2,-2.3620803E-2],"categories":[],"categories_nodes":[],"categories_segments":[],"categories_sizes":[],"default_left":[0,0,0,0,0,0,0,0,0,0,0],"id":30,"left_children":[1,-1,3,5,-1,7,-1,-1,9,-1,-1],"loss_changes":[6.616367E0,0E0,6.0900693E0,5.5443215E0,0E0,5.430443E0,0E0,0E0,7.1517234E0,0E0,0E0],"parents":[2147483647,0,0,2,2,3,3,5,5,8,8],"right_children":[2,-1,4,6,-1,8,-1,-1,10,-1,-1],"split_conditions":[-1.7313427E-1,7.787061E-2,3.4649915E-1,5.1829893E-2,-3.510679E-2,-3.6257085E-1,8.04429E-2,-8.3895124E-2,3.5549536E-1,6.2487464E-2,-2.3620803E-2],"split_indices":[18,0,5,24,0,5,0,0,0,0,0],"split_type":[0,0,0,0,0,0,0,0,0,0,0],"sum_hessian":[5.4461754E1,4.8718414E0,4.958991E1,2.760535E1,2.198456E1,2.2539286E1,5.0660653E0,3.2775047E0,1.9261782E1,8.320117E0,1.0941665E1],"tree_param":{"num_deleted":"0","num_feature":"26","num_nodes":"11","size_leaf_vector":"1"}},{"base_weights":[1.2945032E-2,-8.507939E-2,8.085993E-2,2.1132292E-2,-5.055999E-1,-4.888249E-2,4.6997543E-2],"categories":[],"categories_nodes":[],"categories_segments":[],"categories_sizes":[],"default_left":[0,0,0,0,0,0,0],"id":31,"left_children":[1,3,-1,-1,5,-1,-1],"loss_changes":[5.962498E0,7.9810095E0,0E0,0E0,5.331361E0,0E0,0E0],"parents":[2147483647,0,0,1,1,4,4],"right_children":[2,4,-1,-1,6,-1,-1],"split_conditions":[3.273681E-1,2.7479842E-1,8.085993E-2,2.1132292E-2,8.063682E-2,-4.888249E-2,4.6997543E-2],"split_indices":[11,5,0,0,19,0,0],"split_type":[0,0,0,0,0,0,0],"sum_hessian":[5.3253983E1,4.9044903E1,4.2090797E0,2.554135E1,2.3503553E1,2.0196571E1,3.3069828E0],"tree_param":{"num_deleted":"0","num_feature":"26","num_nodes":"7","size_leaf_vector":"1"}},{"base_weights":[1.28697315E-2,7.731599E-2,-8.531965E-2,3.6729309E-3,-6.0481142E-2],"categories":[],"categories_nodes":[],"categories_segments":[],"categories_sizes":[],"default_left":[0,0,0,0,0],"id":32,"left_children":[1,-1,3,-1,-1],"loss_changes":[5.6432424E0,0E0,5.182794E0,0E0,0E0],"parents":[2147483647,0,0,2,2],"right_children":[2,-1,4,-1,-1],"split_conditions":[-1.7313427E-1,7.731599E-2,3.6212695E-1,3.6729309E-3,-6.0481142E-2],"split_indices":[18,0,1,0,0],"split_type":[0,0,0,0,0],"sum_hessian":[5.264801E1,4.344703E0,4.8303307E1,4.1041096E1,7.262211E0],"tree_param":{"num_deleted":"0","num_feature":"26","num_nodes":"5","size_leaf_vector":"1"}},{"base_weights":[1.1355705E-2,7.682979E-2,-5.753611E-3],"categories":[],"categories_nodes":[],"categories_segments":[],"categories_sizes":[],"default_left":[0,0,0],"id":33,"left_children":[1,-1,-1],"loss_changes":[5.1558385E0,0E0,0E0],"parents":[2147483647,0,0],"right_children":[2,-1,-1],"split_conditions":[-1.7313427E-1,7.682979E-2,-5.753611E-3],"split_indices":[18,0,0],"split_type":[0,0,0],"sum_hessian":[5.073865E1,4.0233583E0,4.6715294E1],"tree_param":{"num_deleted":"0","num_feature":"26","num_nodes":"3","size_leaf_vector":"1"}},{"base_weights":[3.9778156E-3,6.243064E-2,-1.23753496E-1,-4.6459526E-1,2.1491136E-1,9.0279184E-2,-6.5852535E-1,8.018971E-2,-1.4589618E-1,-6.4573154E-2,4.2978805E-2,-3.294041E-2,9.163731E-2],"categories":[],"categories_nodes":[],"categories_segments":[],"categories_sizes":[],"default_left":[0,0,0,0,0,0,0,0,0,0,0,0,0],"id":34,"left_children":[1,-1,3,5,7,-1,9,-1,11,-1,-1,-1,-1],"loss_changes":[5.623319E0,0E0,5.0036483E0,7.3500266E0,7.301094E0,0E0,6.5340767E0,0E0,7.4020085E0,0E0,0E0,0E0,0E0],"parents":[2147483647,0,0,2,2,3,3,4,4,6,6,8,8],"right_children":[2,-1,4,6,8,-1,10,-1,12,-1,-1,-1,-1],"split_conditions":[-1.3940944E-1,6.243064E-2,2.2262663E-1,-2.1399367E-1,1.7244783E-1,9.0279184E-2,6.1937943E-2,8.018971E-2,1.6549917E-2,-6.4573154E-2,4.2978805E-2,-3.294041E-2,9.163731E-2],"split_indices":[14,0,16,17,5,0,19,0,19,0,0,0,0],"split_type":[0,0,0,0,0,0,0,0,0,0,0,0,0],"sum_hessian":[4.9583385E1,6.235949E0,4.3347435E1,2.1604296E1,2.1743141E1,2.1505191E0,1.9453777E1,6.0745745E0,1.5668567E1,1.6111816E1,3.3419607E0,1.281004E1,2.8585265E0],"tree_param":{"num_deleted":"0","num_feature":"26","num_nodes":"13","size_leaf_vector":"1"}},{"base_weights":[4.3201238E-2],"categories":[],"categories_nodes":[],"categories_segments":[],"categories_sizes":[],"default_left":[0],"id":35,"left_children":[-1],"loss_changes":[0E0],"parents":[2147483647],"right_children":[-1],"split_conditions":[3.0240866E-3],"split_indices":[0],"split_type":[0],"sum_hessian":[5.004906E1],"tree_param":{"num_deleted":"0","num_feature":"26","num_nodes":"1","size_leaf_vector":"1"}},{"base_weights":[7.697569E-3],"categories":[],"categories_nodes":[],"categories_segments":[],"categories_sizes":[],"default_left":[0],"id":36,"left_children":[-1],"loss_changes":[0E0],"parents":[2147483647],"right_children":[-1],"split_conditions":[5.3882983E-4],"split_indices":[0],"split_type":[0],"sum_hessian":[4.9472214E1],"tree_param":{"num_deleted":"0","num_feature":"26","num_nodes":"1","size_leaf_vector":"1"}},{"base_weights":[2.4944875E-2,3.2258436E-1,-2.456247E-2,3.5505675E-2,-4.7580823E-2],"categories":[],"categories_nodes":[],"categories_segments":[],"categories_sizes":[],"default_left":[0,0,0,0,0],"id":37,"left_children":[1,3,-1,-1,-1],"loss_changes":[5.489338E0,5.067972E0,0E0,0E0,0E0],"parents":[2147483647,0,0,1,1],"right_children":[2,4,-1,-1,-1],"split_conditions":[3.1844562E-1,3.6751622E-1,-2.456247E-2,3.5505675E-2,-4.7580823E-2],"split_indices":[1,6,0,0,0],"split_type":[0,0,0,0,0],"sum_hessian":[4.907151E1,2.7384634E1,2.1686878E1,2.3124746E1,4.2598867E0],"tree_param":{"num_deleted":"0","num_feature":"26","num_nodes":"5","size_leaf_vector":"1"}},{"base_weights":[-1.2807587E-2],"categories":[],"categories_nodes":[],"categories_segments":[],"categories_sizes":[],"default_left":[0],"id":38,"left_children":[-1],"loss_changes":[0E0],"parents":[2147483647],"right_children":[-1],"split_conditions":[-8.965311E-4],"split_indices":[0],"split_type":[0],"sum_hessian":[4.9958748E1],"tree_param":{"num_deleted":"0","num_feature":"26","num_nodes":"1","size_leaf_vector":"1"}},{"base_weights":[1.7201904E-2],"categories":[],"categories_nodes":[],"categories_segments":[],"categories_sizes":[],"default_left":[0],"id":39,"left_children":[-1],"loss_changes":[0E0],"parents":[2147483647],"right_children":[-1],"split_conditions":[1.2041333E-3],"split_indices":[0],"split_type":[0],"sum_hessian":[4.984166E1],"tree_param":{"num_deleted":"0","num_feature":"26","num_nodes":"1","size_leaf_vector":"1"}},{"base_weights":[5.765176E-3],"categories":[],"categories_nodes":[],"categories_segments":[],"categories_sizes":[],"default_left":[0],"id":40,"left_children":[-1],"loss_changes":[0E0],"parents":[2147483647],"right_children":[-1],"split_conditions":[4.0356233E-4],"split_indices":[0],"split_type":[0],"sum_hessian":[4.899411E1],"tree_param":{"num_deleted":"0","num_feature":"26","num_nodes":"1","size_leaf_vector":"1"}},{"base_weights":[-1.0476718E-3],"categories":[],"categories_nodes":[],"categories_segments":[],"categories_sizes":[],"default_left":[0],"id":41,"left_children":[-1],"loss_changes":[0E0],"parents":[2147483647],"right_children":[-1],"split_conditions":[-7.3337025E-5],"split_indices":[0],"split_type":[0],"sum_hessian":[4.9295807E1],"tree_param":{"num_deleted":"0","num_feature":"26","num_nodes":"1","size_leaf_vector":"1"}},{"base_weights":[-1.4678267E-2,7.819686E-3,-6.026815E-2],"categories":[],"categories_nodes":[],"categories_segments":[],"categories_sizes":[],"default_left":[0,0,0],"id":42,"left_children":[1,-1,-1],"loss_changes":[5.289056E0,0E0,0E0],"parents":[2147483647,0,0],"right_children":[2,-1,-1],"split_conditions":[3.6271083E-1,7.819686E-3,-6.026815E-2],"split_indices":[1,0,0],"split_type":[0,0,0],"sum_hessian":[4.944807E1,4.3022907E1,6.425163E0],"tree_param":{"num_deleted":"0","num_feature":"26","num_nodes":"3","size_leaf_vector":"1"}},{"base_weights":[-2.1659346E-2],"categories":[],"categories_nodes":[],"categories_segments":[],"categories_sizes":[],"default_left":[0],"id":43,"left_children":[-1],"loss_changes":[0E0],"parents":[2147483647],"right_children":[-1],"split_conditions":[-1.5161543E-3],"split_indices":[0],"split_type":[0],"sum_hessian":[4.823175E1],"tree_param":{"num_deleted":"0","num_feature":"26","num_nodes":"1","size_leaf_vector":"1"}},{"base_weights":[3.3671167E-2],"categories":[],"categories_nodes":[],"categories_segments":[],"categories_sizes":[],"default_left":[0],"id":44,"left_children":[-1],"loss_changes":[0E0],"parents":[2147483647],"right_children":[-1],"split_conditions":[2.3569816E-3],"split_indices":[0],"split_type":[0],"sum_hessian":[4.8684288E1],"tree_param":{"num_deleted":"0","num_feature":"26","num_nodes":"1","size_leaf_vector":"1"}},{"base_weights":[1.32928165E-2],"categories":[],"categories_nodes":[],"categories_segments":[],"categories_sizes":[],"default_left":[0],"id":45,"left_children":[-1],"loss_changes":[0E0],"parents":[2147483647],"right_children":[-1],"split_conditions":[9.3049713E-4],"split_indices":[0],"split_type":[0],"sum_hessian":[4.8989822E1],"tree_param":{"num_deleted":"0","num_feature":"26","num_nodes":"1","size_leaf_vector":"1"}},{"base_weights":[6.066427E-3],"categories":[],"categories_nodes":[],"categories_segments":[],"categories_sizes":[],"default_left":[0],"id":46,"left_children":[-1],"loss_changes":[0E0],"parents":[2147483647],"right_children":[-1],"split_conditions":[4.246499E-4],"split_indices":[0],"split_type":[0],"sum_hessian":[4.928497E1],"tree_param":{"num_deleted":"0","num_feature":"26","num_nodes":"1","size_leaf_vector":"1"}},{"base_weights":[-2.9405463E-2],"categories":[],"categories_nodes":[],"categories_segments":[],"categories_sizes":[],"default_left":[0],"id":47,"left_children":[-1],"loss_changes":[0E0],"parents":[2147483647],"right_children":[-1],"split_conditions":[-2.0583824E-3],"split_indices":[0],"split_type":[0],"sum_hessian":[4.9309948E1],"tree_param":{"num_deleted":"0","num_feature":"26","num_nodes":"1","size_leaf_vector":"1"}},{"base_weights":[-1.2171435E-2,6.715192E-2,-9.322071E-3],"categories":[],"categories_nodes":[],"categories_segments":[],"categories_sizes":[],"default_left":[0,0,0],"id":48,"left_children":[1,-1,-1],"loss_changes":[5.707149E0,0E0,0E0],"parents":[2147483647,0,0],"right_children":[2,-1,-1],"split_conditions":[-8.712574E-2,6.715192E-2,-9.322071E-3],"split_indices":[10,0,0],"split_type":[0,0,0],"sum_hessian":[4.8550613E1,5.37733E0,4.3173283E1],"tree_param":{"num_deleted":"0","num_feature":"26","num_nodes":"3","size_leaf_vector":"1"}},{"base_weights":[8.756295E-3],"categories":[],"categories_nodes":[],"categories_segments":[],"categories_sizes":[],"default_left":[0],"id":49,"left_children":[-1],"loss_changes":[0E0],"parents":[2147483647],"right_children":[-1],"split_conditions":[6.1294064E-4],"split_indices":[0],"split_type":[0],"sum_hessian":[5.0039326E1],"tree_param":{"num_deleted":"0","num_feature":"26","num_nodes":"1","size_leaf_vector":"1"}}]},"name":"gbtree"},"learner_model_param":{"base_score":"5.115741E-1","boost_from_average":"1","num_class":"0","num_feature":"26","num_target":"1"},"objective":{"name":"binary:logistic","reg_loss_param":{"scale_pos_weight":"1"}}},"version":[3,0,2]}